digraph Tree {
node [shape=box, style="filled, rounded", color="black", fontname=helvetica] ;
edge [fontname=helvetica] ;
0 [label=<X<SUB>0</SUB> &le; 0.654<br/>entropy = 0.951<br/>samples = 300<br/>value = [189, 111]>, fillcolor="#e5813969"] ;
1 [label=<X<SUB>1</SUB> &le; 0.61<br/>entropy = 0.693<br/>samples = 215<br/>value = [175, 40]>, fillcolor="#e58139c5"] ;
0 -> 1 [labeldistance=2.5, labelangle=45, headlabel="True"] ;
2 [label=<X<SUB>0</SUB> &le; -0.11<br/>entropy = 0.241<br/>samples = 176<br/>value = [169, 7]>, fillcolor="#e58139f4"] ;
1 -> 2 ;
3 [label=<entropy = 0.0<br/>samples = 114<br/>value = [114, 0]>, fillcolor="#e58139ff"] ;
2 -> 3 ;
4 [label=<X<SUB>1</SUB> &le; -0.066<br/>entropy = 0.509<br/>samples = 62<br/>value = [55, 7]>, fillcolor="#e58139df"] ;
2 -> 4 ;
5 [label=<entropy = 0.0<br/>samples = 31<br/>value = [31, 0]>, fillcolor="#e58139ff"] ;
4 -> 5 ;
6 [label=<X<SUB>1</SUB> &le; 0.404<br/>entropy = 0.771<br/>samples = 31<br/>value = [24, 7]>, fillcolor="#e58139b5"] ;
4 -> 6 ;
7 [label=<X<SUB>1</SUB> &le; 0.022<br/>entropy = 0.663<br/>samples = 29<br/>value = [24, 5]>, fillcolor="#e58139ca"] ;
6 -> 7 ;
8 [label=<entropy = 0.0<br/>samples = 1<br/>value = [0, 1]>, fillcolor="#399de5ff"] ;
7 -> 8 ;
9 [label=<X<SUB>1</SUB> &le; 0.257<br/>entropy = 0.592<br/>samples = 28<br/>value = [24, 4]>, fillcolor="#e58139d4"] ;
7 -> 9 ;
10 [label=<X<SUB>1</SUB> &le; 0.081<br/>entropy = 0.684<br/>samples = 22<br/>value = [18, 4]>, fillcolor="#e58139c6"] ;
9 -> 10 ;
11 [label=<X<SUB>0</SUB> &le; 0.176<br/>entropy = 0.391<br/>samples = 13<br/>value = [12, 1]>, fillcolor="#e58139ea"] ;
10 -> 11 ;
12 [label=<entropy = 0.0<br/>samples = 6<br/>value = [6, 0]>, fillcolor="#e58139ff"] ;
11 -> 12 ;
13 [label=<X<SUB>1</SUB> &le; 0.052<br/>entropy = 0.592<br/>samples = 7<br/>value = [6, 1]>, fillcolor="#e58139d4"] ;
11 -> 13 ;
14 [label=<X<SUB>0</SUB> &le; 0.272<br/>entropy = 1.0<br/>samples = 2<br/>value = [1, 1]>, fillcolor="#e5813900"] ;
13 -> 14 ;
15 [label=<entropy = 0.0<br/>samples = 1<br/>value = [0, 1]>, fillcolor="#399de5ff"] ;
14 -> 15 ;
16 [label=<entropy = 0.0<br/>samples = 1<br/>value = [1, 0]>, fillcolor="#e58139ff"] ;
14 -> 16 ;
17 [label=<entropy = 0.0<br/>samples = 5<br/>value = [5, 0]>, fillcolor="#e58139ff"] ;
13 -> 17 ;
18 [label=<X<SUB>1</SUB> &le; 0.11<br/>entropy = 0.918<br/>samples = 9<br/>value = [6, 3]>, fillcolor="#e581397f"] ;
10 -> 18 ;
19 [label=<X<SUB>0</SUB> &le; 0.272<br/>entropy = 1.0<br/>samples = 2<br/>value = [1, 1]>, fillcolor="#e5813900"] ;
18 -> 19 ;
20 [label=<entropy = 0.0<br/>samples = 1<br/>value = [1, 0]>, fillcolor="#e58139ff"] ;
19 -> 20 ;
21 [label=<entropy = 0.0<br/>samples = 1<br/>value = [0, 1]>, fillcolor="#399de5ff"] ;
19 -> 21 ;
22 [label=<X<SUB>0</SUB> &le; 0.176<br/>entropy = 0.863<br/>samples = 7<br/>value = [5, 2]>, fillcolor="#e5813999"] ;
18 -> 22 ;
23 [label=<X<SUB>0</SUB> &le; 0.033<br/>entropy = 1.0<br/>samples = 4<br/>value = [2, 2]>, fillcolor="#e5813900"] ;
22 -> 23 ;
24 [label=<X<SUB>1</SUB> &le; 0.198<br/>entropy = 0.918<br/>samples = 3<br/>value = [2, 1]>, fillcolor="#e581397f"] ;
23 -> 24 ;
25 [label=<entropy = 0.0<br/>samples = 2<br/>value = [2, 0]>, fillcolor="#e58139ff"] ;
24 -> 25 ;
26 [label=<entropy = 0.0<br/>samples = 1<br/>value = [0, 1]>, fillcolor="#399de5ff"] ;
24 -> 26 ;
27 [label=<entropy = 0.0<br/>samples = 1<br/>value = [0, 1]>, fillcolor="#399de5ff"] ;
23 -> 27 ;
28 [label=<entropy = 0.0<br/>samples = 3<br/>value = [3, 0]>, fillcolor="#e58139ff"] ;
22 -> 28 ;
29 [label=<entropy = 0.0<br/>samples = 6<br/>value = [6, 0]>, fillcolor="#e58139ff"] ;
9 -> 29 ;
30 [label=<entropy = 0.0<br/>samples = 2<br/>value = [0, 2]>, fillcolor="#399de5ff"] ;
6 -> 30 ;
31 [label=<X<SUB>1</SUB> &le; 1.872<br/>entropy = 0.619<br/>samples = 39<br/>value = [6, 33]>, fillcolor="#399de5d1"] ;
1 -> 31 ;
32 [label=<X<SUB>1</SUB> &le; 1.109<br/>entropy = 0.779<br/>samples = 26<br/>value = [6, 20]>, fillcolor="#399de5b3"] ;
31 -> 32 ;
33 [label=<entropy = 0.0<br/>samples = 8<br/>value = [0, 8]>, fillcolor="#399de5ff"] ;
32 -> 33 ;
34 [label=<X<SUB>1</SUB> &le; 1.373<br/>entropy = 0.918<br/>samples = 18<br/>value = [6, 12]>, fillcolor="#399de57f"] ;
32 -> 34 ;
35 [label=<X<SUB>0</SUB> &le; -0.397<br/>entropy = 0.985<br/>samples = 7<br/>value = [4, 3]>, fillcolor="#e5813940"] ;
34 -> 35 ;
36 [label=<entropy = 0.0<br/>samples = 2<br/>value = [2, 0]>, fillcolor="#e58139ff"] ;
35 -> 36 ;
37 [label=<X<SUB>1</SUB> &le; 1.256<br/>entropy = 0.971<br/>samples = 5<br/>value = [2, 3]>, fillcolor="#399de555"] ;
35 -> 37 ;
38 [label=<X<SUB>0</SUB> &le; -0.301<br/>entropy = 1.0<br/>samples = 4<br/>value = [2, 2]>, fillcolor="#e5813900"] ;
37 -> 38 ;
39 [label=<entropy = 0.0<br/>samples = 1<br/>value = [0, 1]>, fillcolor="#399de5ff"] ;
38 -> 39 ;
40 [label=<X<SUB>0</SUB> &le; 0.224<br/>entropy = 0.918<br/>samples = 3<br/>value = [2, 1]>, fillcolor="#e581397f"] ;
38 -> 40 ;
41 [label=<entropy = 0.0<br/>samples = 2<br/>value = [2, 0]>, fillcolor="#e58139ff"] ;
40 -> 41 ;
42 [label=<entropy = 0.0<br/>samples = 1<br/>value = [0, 1]>, fillcolor="#399de5ff"] ;
40 -> 42 ;
43 [label=<entropy = 0.0<br/>samples = 1<br/>value = [0, 1]>, fillcolor="#399de5ff"] ;
37 -> 43 ;
44 [label=<X<SUB>1</SUB> &le; 1.799<br/>entropy = 0.684<br/>samples = 11<br/>value = [2, 9]>, fillcolor="#399de5c6"] ;
34 -> 44 ;
45 [label=<X<SUB>0</SUB> &le; -1.018<br/>entropy = 0.469<br/>samples = 10<br/>value = [1, 9]>, fillcolor="#399de5e3"] ;
44 -> 45 ;
46 [label=<entropy = 0.0<br/>samples = 1<br/>value = [1, 0]>, fillcolor="#e58139ff"] ;
45 -> 46 ;
47 [label=<entropy = 0.0<br/>samples = 9<br/>value = [0, 9]>, fillcolor="#399de5ff"] ;
45 -> 47 ;
48 [label=<entropy = 0.0<br/>samples = 1<br/>value = [1, 0]>, fillcolor="#e58139ff"] ;
44 -> 48 ;
49 [label=<entropy = 0.0<br/>samples = 13<br/>value = [0, 13]>, fillcolor="#399de5ff"] ;
31 -> 49 ;
50 [label=<X<SUB>1</SUB> &le; -0.829<br/>entropy = 0.645<br/>samples = 85<br/>value = [14, 71]>, fillcolor="#399de5cd"] ;
0 -> 50 [labeldistance=2.5, labelangle=-45, headlabel="False"] ;
51 [label=<X<SUB>1</SUB> &le; -1.387<br/>entropy = 0.211<br/>samples = 30<br/>value = [1, 29]>, fillcolor="#399de5f6"] ;
50 -> 51 ;
52 [label=<X<SUB>0</SUB> &le; 0.845<br/>entropy = 0.722<br/>samples = 5<br/>value = [1, 4]>, fillcolor="#399de5bf"] ;
51 -> 52 ;
53 [label=<X<SUB>0</SUB> &le; 0.749<br/>entropy = 1.0<br/>samples = 2<br/>value = [1, 1]>, fillcolor="#e5813900"] ;
52 -> 53 ;
54 [label=<entropy = 0.0<br/>samples = 1<br/>value = [0, 1]>, fillcolor="#399de5ff"] ;
53 -> 54 ;
55 [label=<entropy = 0.0<br/>samples = 1<br/>value = [1, 0]>, fillcolor="#e58139ff"] ;
53 -> 55 ;
56 [label=<entropy = 0.0<br/>samples = 3<br/>value = [0, 3]>, fillcolor="#399de5ff"] ;
52 -> 56 ;
57 [label=<entropy = 0.0<br/>samples = 25<br/>value = [0, 25]>, fillcolor="#399de5ff"] ;
51 -> 57 ;
58 [label=<X<SUB>0</SUB> &le; 1.418<br/>entropy = 0.789<br/>samples = 55<br/>value = [13, 42]>, fillcolor="#399de5b0"] ;
50 -> 58 ;
59 [label=<X<SUB>1</SUB> &le; 0.448<br/>entropy = 0.946<br/>samples = 33<br/>value = [12, 21]>, fillcolor="#399de56d"] ;
58 -> 59 ;
60 [label=<X<SUB>0</SUB> &le; 1.036<br/>entropy = 0.985<br/>samples = 14<br/>value = [8, 6]>, fillcolor="#e5813940"] ;
59 -> 60 ;
61 [label=<X<SUB>0</SUB> &le; 0.845<br/>entropy = 0.994<br/>samples = 11<br/>value = [5, 6]>, fillcolor="#399de52a"] ;
60 -> 61 ;
62 [label=<X<SUB>1</SUB> &le; -0.521<br/>entropy = 0.918<br/>samples = 6<br/>value = [4, 2]>, fillcolor="#e581397f"] ;
61 -> 62 ;
63 [label=<entropy = 0.0<br/>samples = 1<br/>value = [0, 1]>, fillcolor="#399de5ff"] ;
62 -> 63 ;
64 [label=<X<SUB>1</SUB> &le; 0.198<br/>entropy = 0.722<br/>samples = 5<br/>value = [4, 1]>, fillcolor="#e58139bf"] ;
62 -> 64 ;
65 [label=<entropy = 0.0<br/>samples = 2<br/>value = [2, 0]>, fillcolor="#e58139ff"] ;
64 -> 65 ;
66 [label=<X<SUB>0</SUB> &le; 0.749<br/>entropy = 0.918<br/>samples = 3<br/>value = [2, 1]>, fillcolor="#e581397f"] ;
64 -> 66 ;
67 [label=<entropy = 0.0<br/>samples = 1<br/>value = [1, 0]>, fillcolor="#e58139ff"] ;
66 -> 67 ;
68 [label=<X<SUB>1</SUB> &le; 0.316<br/>entropy = 1.0<br/>samples = 2<br/>value = [1, 1]>, fillcolor="#e5813900"] ;
66 -> 68 ;
69 [label=<entropy = 0.0<br/>samples = 1<br/>value = [0, 1]>, fillcolor="#399de5ff"] ;
68 -> 69 ;
70 [label=<entropy = 0.0<br/>samples = 1<br/>value = [1, 0]>, fillcolor="#e58139ff"] ;
68 -> 70 ;
71 [label=<X<SUB>1</SUB> &le; -0.638<br/>entropy = 0.722<br/>samples = 5<br/>value = [1, 4]>, fillcolor="#399de5bf"] ;
61 -> 71 ;
72 [label=<entropy = 0.0<br/>samples = 1<br/>value = [1, 0]>, fillcolor="#e58139ff"] ;
71 -> 72 ;
73 [label=<entropy = 0.0<br/>samples = 4<br/>value = [0, 4]>, fillcolor="#399de5ff"] ;
71 -> 73 ;
74 [label=<entropy = 0.0<br/>samples = 3<br/>value = [3, 0]>, fillcolor="#e58139ff"] ;
60 -> 74 ;
75 [label=<X<SUB>1</SUB> &le; 0.668<br/>entropy = 0.742<br/>samples = 19<br/>value = [4, 15]>, fillcolor="#399de5bb"] ;
59 -> 75 ;
76 [label=<entropy = 0.0<br/>samples = 4<br/>value = [0, 4]>, fillcolor="#399de5ff"] ;
75 -> 76 ;
77 [label=<X<SUB>1</SUB> &le; 1.344<br/>entropy = 0.837<br/>samples = 15<br/>value = [4, 11]>, fillcolor="#399de5a2"] ;
75 -> 77 ;
78 [label=<X<SUB>0</SUB> &le; 0.845<br/>entropy = 1.0<br/>samples = 4<br/>value = [2, 2]>, fillcolor="#e5813900"] ;
77 -> 78 ;
79 [label=<entropy = 0.0<br/>samples = 1<br/>value = [1, 0]>, fillcolor="#e58139ff"] ;
78 -> 79 ;
80 [label=<X<SUB>0</SUB> &le; 1.179<br/>entropy = 0.918<br/>samples = 3<br/>value = [1, 2]>, fillcolor="#399de57f"] ;
78 -> 80 ;
81 [label=<entropy = 0.0<br/>samples = 2<br/>value = [0, 2]>, fillcolor="#399de5ff"] ;
80 -> 81 ;
82 [label=<entropy = 0.0<br/>samples = 1<br/>value = [1, 0]>, fillcolor="#e58139ff"] ;
80 -> 82 ;
83 [label=<X<SUB>1</SUB> &le; 1.843<br/>entropy = 0.684<br/>samples = 11<br/>value = [2, 9]>, fillcolor="#399de5c6"] ;
77 -> 83 ;
84 [label=<entropy = 0.0<br/>samples = 4<br/>value = [0, 4]>, fillcolor="#399de5ff"] ;
83 -> 84 ;
85 [label=<X<SUB>1</SUB> &le; 2.166<br/>entropy = 0.863<br/>samples = 7<br/>value = [2, 5]>, fillcolor="#399de599"] ;
83 -> 85 ;
86 [label=<X<SUB>1</SUB> &le; 2.048<br/>entropy = 0.971<br/>samples = 5<br/>value = [2, 3]>, fillcolor="#399de555"] ;
85 -> 86 ;
87 [label=<X<SUB>1</SUB> &le; 1.946<br/>entropy = 0.811<br/>samples = 4<br/>value = [1, 3]>, fillcolor="#399de5aa"] ;
86 -> 87 ;
88 [label=<X<SUB>0</SUB> &le; 1.131<br/>entropy = 1.0<br/>samples = 2<br/>value = [1, 1]>, fillcolor="#e5813900"] ;
87 -> 88 ;
89 [label=<entropy = 0.0<br/>samples = 1<br/>value = [0, 1]>, fillcolor="#399de5ff"] ;
88 -> 89 ;
90 [label=<entropy = 0.0<br/>samples = 1<br/>value = [1, 0]>, fillcolor="#e58139ff"] ;
88 -> 90 ;
91 [label=<entropy = 0.0<br/>samples = 2<br/>value = [0, 2]>, fillcolor="#399de5ff"] ;
87 -> 91 ;
92 [label=<entropy = 0.0<br/>samples = 1<br/>value = [1, 0]>, fillcolor="#e58139ff"] ;
86 -> 92 ;
93 [label=<entropy = 0.0<br/>samples = 2<br/>value = [0, 2]>, fillcolor="#399de5ff"] ;
85 -> 93 ;
94 [label=<X<SUB>1</SUB> &le; -0.756<br/>entropy = 0.267<br/>samples = 22<br/>value = [1, 21]>, fillcolor="#399de5f3"] ;
58 -> 94 ;
95 [label=<X<SUB>0</SUB> &le; 2.086<br/>entropy = 1.0<br/>samples = 2<br/>value = [1, 1]>, fillcolor="#e5813900"] ;
94 -> 95 ;
96 [label=<entropy = 0.0<br/>samples = 1<br/>value = [1, 0]>, fillcolor="#e58139ff"] ;
95 -> 96 ;
97 [label=<entropy = 0.0<br/>samples = 1<br/>value = [0, 1]>, fillcolor="#399de5ff"] ;
95 -> 97 ;
98 [label=<entropy = 0.0<br/>samples = 20<br/>value = [0, 20]>, fillcolor="#399de5ff"] ;
94 -> 98 ;
}